{"model_type": "linear", "model": {"l1_ratio": 1.0, "alpha": 1.3296299120633754, "fit_intercept": true, "normalize": false, "max_iter": 100000, "copy_X": true, "tol": 0.0001, "warm_start": false, "random_state": null, "selection": "cyclic", "coef_": {"@module": "numpy", "@class": "array", "dtype": "float64", "data": [[784.5188498240536, 2.010440247121109, 0.0, 103.74095451702692, -9.553410973406553, -45.69812289938146, 55.01666662651814, -145.81247680279284, 17.15012137870584, 39.776886668094306, -82.05108722072292, -48.10568359494534, 91.13076624431562, 44.40181514485916, -819.8633308523362, -131.71459445181668, 0.0, 6.431992396427912, -83.2799508000027, -0.3932917137962023], [741.5747917433408, -32.09220679135362, 0.0, 72.4774822143998, 17.418323243213013, -36.540284334692245, 6.210639348649145, -103.67427447302185, 14.02555624415849, 41.73394219337853, -117.67197390701556, -47.85176813584468, 61.957014663808124, 32.701559859960064, -718.2423167674111, -105.1170855508968, 0.0, 21.487443401388465, -64.65539900488169, -15.563886995713798], [472.2512438935965, -55.49930692925426, 0.0, 65.97394513219449, 20.45652656273928, -44.64278292502849, -8.91096546825683, -77.16683367097836, 13.692734462976214, 38.42723719718124, -124.08637478466386, -42.84026510922363, 45.043811718896805, -10.958712838924187, -423.11514984055685, -46.653037956531065, 0.0, 15.74696490896248, -63.677122046125405, -19.38278848647222], [463.7233717810618, -61.16479973677714, 0.0, 61.870033399716974, 23.283920658235022, -32.055785889854995, -15.158302862611608, -57.21844930897288, 13.453871839017374, 35.28783435434856, -142.2816377271506, -40.05877717039368, 37.53161335709046, -3.5227087841780147, -409.53384909553694, -46.42093967139264, 0.0, 16.696682725838, -62.84172926994506, -20.670673853104564], [508.6598919537969, -27.297738693957065, 0.0, 52.82605537047112, 32.90324107722947, -40.472040855961076, -17.197449951521833, -73.40877983254994, 11.646148145857657, 34.76590749279545, -131.3292465444494, -25.576244904779305, 12.249126583135919, -9.07435011278267, -461.95926614891977, -39.12490510732863, 0.0, 15.26801232627774, -69.38432953409982, -11.753546210363881], [507.35016817559443, -33.07627158980072, 0.0, 50.28760923214094, 35.55533919119087, -47.58792166582479, -21.26344929566869, -66.81900088675576, 0.9403998071361794, 33.74489693078947, -124.17590151544985, -21.91035674581428, 13.983638147045637, -2.2571252612385577, -458.8623341427474, -43.36170963880812, 0.0, 15.845246054760148, -61.902574078342205, -23.933008606210727], [508.61315198512114, -33.44185870790279, 0.0, 48.088383283591924, 34.79499166593547, -50.61418981770789, -26.417375347046807, -61.25824943724244, 0.963460103557658, 32.59192699679667, -120.06984131374048, -20.824294412456297, 12.740722190215038, -2.652610388396627, -455.9980652079251, -41.54426323205867, 0.0, 16.431031669733343, -59.30709989800736, -24.490932925458463]]}, "dual_gap_": 11336.038925331086, "eps_": 11363.188876595757, "n_iter_": 1446, "intercept_": {"@module": "numpy", "@class": "array", "dtype": "float64", "data": [522.8865248226954, 650.7730496453906, 700.5815602836881, 728.3758865248229, 761.3900709219864, 782.6808510638303, 795.3546099290786]}}, "confidence_bounds": {"@module": "numpy", "@class": "array", "dtype": "float64", "data": [0.31959701412012986, 0.11345936950401521, 0.07021168060523099, 0.05593368114530821, 0.046413842255876615, 0.03938433656203812, 0.037898336995975605]}, "Rsquare": 0.7516569573478483, "regularization_type": "elasticnet", "timestamp": "2019-12-06T22:28:50.160919", "dataset_id": null, "hyperparameters": {"random_state": 2, "test_size": 0.2, "k_fold": 5, "tol": 1e-05, "max_iter": 100000, "l1_ratio": 1.0, "alpha": 1.3296299120633754}, "featureset_name": "full_model", "predicted_quantity": "cycle", "mu": {"@module": "numpy", "@class": "array", "dtype": "float64", "data": [1.0621679521985816, 0.6155386740425535, 1.0645247936879436, 192286.8119294809, 625.7650780141842, -1.5101380208862158, -1.9676363388942477, -3.702815403134499, -0.9727867910079196, 0.0888559144026939, -1.5763394343768344, 37.14430771539303, 29.974475116706994, -2.4135900878517298e-05, 1.067830433385498, -6.959480980012913e-05, 1.071387020880722, 0.016324301156028367, 0.016801188592198587, -0.0001769926276595744]}, "sigma": {"@module": "numpy", "@class": "array", "dtype": "float64", "data": [0.016427512981941, 0.17121559872087294, 0.02157357471864455, 32884.469280128644, 53.23821485650501, 0.2594081013726041, 0.45175839683006797, 0.4665507715255008, 0.5515821367257587, 0.42419376844425827, 0.25117028616970266, 1.9905973083961026, 0.9357193786259616, 0.00011036621858292709, 0.017697627026756053, 0.0001377814474538696, 0.019518703971148767, 0.0007943510437745965, 0.0008351196591708249, 0.00026038820706777304]}}